<?xml version="1.0"?>
<opencv_storage>
<opencv_ml_svm>
  <format>3</format>
  <svmType>C_SVC</svmType>
  <kernel>
    <type>RBF</type>
    <gamma>1.5000000000000001e-04</gamma></kernel>
  <C>5.0000000000000000e-01</C>
  <term_criteria><epsilon>1.1920928955078125e-07</epsilon>
    <iterations>1000</iterations></term_criteria>
  <var_count>2</var_count>
  <class_count>2</class_count>
  <class_labels type_id="opencv-matrix">
    <rows>2</rows>
    <cols>1</cols>
    <dt>i</dt>
    <data>
      0 1</data></class_labels>
  <sv_total>26</sv_total>
  <support_vectors>
    <_>
      120. 13.</_>
    <_>
      17. 120.</_>
    <_>
      144. 81.</_>
    <_>
      132. 153.</_>
    <_>
      119. 119.</_>
    <_>
      61. 94.</_>
    <_>
      149. 52.</_>
    <_>
      147. 110.</_>
    <_>
      17. 25.</_>
    <_>
      21. 105.</_>
    <_>
      79. 115.</_>
    <_>
      8. 43.</_>
    <_>
      62. 15.</_>
    <_>
      131. 151.</_>
    <_>
      205. 132.</_>
    <_>
      100. 133.</_>
    <_>
      144. 127.</_>
    <_>
      243. 118.</_>
    <_>
      103. 105.</_>
    <_>
      104. 240.</_>
    <_>
      246. 201.</_>
    <_>
      99. 184.</_>
    <_>
      182. 145.</_>
    <_>
      101. 181.</_>
    <_>
      131. 164.</_>
    <_>
      199. 242.</_></support_vectors>
  <decision_functions>
    <_>
      <sv_count>26</sv_count>
      <rho>8.5609052075298106e-02</rho>
      <alpha>
        2.8515440347371468e-01 5.0000000000000000e-01
        5.0000000000000000e-01 5.0000000000000000e-01
        5.0000000000000000e-01 1.9046069861316103e-01
        5.0000000000000000e-01 5.0000000000000000e-01
        5.0000000000000000e-01 1.8093165622103149e-01
        5.0000000000000000e-01 6.7532030920095437e-02
        9.6164683777410165e-02 -5.0000000000000000e-01
        -5.0000000000000000e-01 -5.0000000000000000e-01
        -5.0000000000000000e-01 -5.0000000000000000e-01
        -5.0000000000000000e-01 -3.5914687606903045e-01
        -2.3536883255414456e-01 -6.5075109057922298e-02
        -5.5811125179978195e-02 -5.0000000000000000e-01
        -1.6130831643386201e-01 -4.4353321371047538e-01</alpha>
      <index>
        0 1 2 3 4 5 6 7 8 9 10 11 12 13 14 15 16 17 18 19 20 21 22 23 24
        25</index></_></decision_functions></opencv_ml_svm>
</opencv_storage>
